GenomeStart 330033
Neuron 1 1 0.00000000 1 0.00000000 0.00000000 0.00000000 0.00000000
Neuron 2 1 0.00000000 1 0.00000000 0.00000000 0.00000000 0.00000000
Neuron 3 1 0.00000000 1 0.00000000 0.00000000 0.00000000 0.00000000
Neuron 4 1 0.00000000 1 0.00000000 0.00000000 0.00000000 0.00000000
Neuron 5 1 0.00000000 1 0.00000000 0.00000000 0.00000000 0.00000000
Neuron 6 1 0.00000000 1 0.00000000 0.00000000 0.00000000 0.00000000
Neuron 7 2 0.00000000 1 0.00000000 0.00000000 0.00000000 0.00000000
Neuron 8 4 1.00000000 0 1.00000000 0.00000000 0.00000000 0.00000000
Neuron 9 4 1.00000000 5 1.00000000 0.00000000 0.00000000 0.00000000
Neuron 10 3 0.50000000 6 1.00000000 0.00000000 0.00000000 0.00000000
Neuron 11 3 0.50000000 6 1.00000000 0.00000000 0.00000000 0.00000000
Neuron 12 3 0.25000000 13 1.00000000 0.00000000 0.00000000 0.00000000
Neuron 13 3 0.25000000 13 1.00000000 0.00000000 0.00000000 0.00000000
Neuron 16 3 0.25000000 8 1.00000000 0.00000000 0.00000000 0.00000000
Neuron 17 3 0.75000000 0 1.00000000 0.00000000 0.00000000 0.00000000
Neuron 18 3 0.12500000 9 1.00000000 0.00000000 0.00000000 0.00000000
Neuron 20 3 0.87500000 8 1.00000000 0.00000000 0.00000000 0.00000000
Neuron 23 3 0.50000000 0 1.00000000 0.00000000 0.00000000 0.00000000
Neuron 36 3 0.25000000 6 1.00000000 0.00000000 0.00000000 0.00000000
Neuron 44 3 0.81250000 6 1.00000000 0.00000000 0.00000000 0.00000000
Neuron 49 3 0.75000000 13 1.00000000 0.00000000 0.00000000 0.00000000
Neuron 85 3 0.87500000 0 1.00000000 0.00000000 0.00000000 0.00000000
Neuron 94 3 0.25000000 13 1.00000000 0.00000000 0.00000000 0.00000000
Neuron 179 3 0.37500000 6 1.00000000 0.00000000 0.00000000 0.00000000
Neuron 186 3 0.12500000 8 1.00000000 0.00000000 0.00000000 0.00000000
Neuron 197 3 0.12500000 6 1.00000000 0.00000000 0.00000000 0.00000000
Neuron 198 3 0.18750000 8 1.00000000 0.00000000 0.00000000 0.00000000
Neuron 199 3 0.84375000 0 1.00000000 0.00000000 0.00000000 0.00000000
Neuron 200 3 0.21875000 0 1.00000000 0.00000000 0.00000000 0.00000000
Neuron 202 3 0.82812500 8 1.00000000 0.00000000 0.00000000 0.00000000
Neuron 208 3 0.15625000 0 1.00000000 0.00000000 0.00000000 0.00000000
Neuron 212 3 0.78125000 8 1.00000000 0.00000000 0.00000000 0.00000000
Neuron 213 3 0.85937500 6 1.00000000 0.00000000 0.00000000 0.00000000
Neuron 215 3 0.83593750 8 1.00000000 0.00000000 0.00000000 0.00000000
Neuron 217 3 0.50000000 0 1.00000000 0.00000000 0.00000000 0.00000000
Neuron 218 3 0.18750000 13 1.00000000 0.00000000 0.00000000 0.00000000
Neuron 219 3 0.12500000 8 1.00000000 0.00000000 0.00000000 0.00000000
Neuron 226 3 0.12500000 8 1.00000000 0.00000000 0.00000000 0.00000000
Neuron 249 3 0.10937500 9 1.00000000 0.00000000 0.00000000 0.00000000
Neuron 254 3 0.16406250 0 1.00000000 0.00000000 0.00000000 0.00000000
Neuron 256 3 0.18750000 8 1.00000000 0.00000000 0.00000000 0.00000000
Neuron 259 3 0.81250000 13 1.00000000 0.00000000 0.00000000 0.00000000
Neuron 261 3 0.83203125 8 1.00000000 0.00000000 0.00000000 0.00000000
Neuron 272 3 0.68750000 0 1.00000000 0.00000000 0.00000000 0.00000000
Neuron 279 3 0.67187500 6 1.00000000 0.00000000 0.00000000 0.00000000
Neuron 321 3 0.12500000 13 1.00000000 0.00000000 0.00000000 0.00000000
Neuron 325 3 0.59375000 9 1.00000000 0.00000000 0.00000000 0.00000000
Neuron 347 3 0.12500000 6 1.00000000 0.00000000 0.00000000 0.00000000
Neuron 349 3 0.21875000 0 1.00000000 0.00000000 0.00000000 0.00000000
Neuron 351 3 0.78125000 0 1.00000000 0.00000000 0.00000000 0.00000000
Neuron 353 3 0.75781250 0 1.00000000 0.00000000 0.00000000 0.00000000
Neuron 356 3 0.25000000 13 1.00000000 0.00000000 0.00000000 0.00000000
Neuron 358 3 0.18750000 0 1.00000000 0.00000000 0.00000000 0.00000000
Neuron 361 3 0.23437500 13 1.00000000 0.00000000 0.00000000 0.00000000
Neuron 370 3 0.34375000 8 1.00000000 0.00000000 0.00000000 0.00000000
Neuron 372 3 0.12500000 8 1.00000000 0.00000000 0.00000000 0.00000000
Link 2 10 1 0 3.66844006
Link 10 8 3 0 3.48506531
Link 7 10 4 0 -0.64010922
Link 7 9 8 0 -2.40688213
Link 4 12 10 0 0.72230056
Link 12 11 11 0 -1.53493591
Link 6 9 13 0 -0.35901358
Link 13 11 16 0 -0.67117698
Link 7 8 27 0 -1.95795763
Link 5 16 32 0 3.13504000
Link 16 10 33 0 -0.02370770
Link 11 17 36 0 4.94683847
Link 1 18 51 0 1.31543355
Link 6 8 53 0 0.75382856
Link 20 9 60 0 -0.05840800
Link 2 23 70 0 0.13505877
Link 5 8 79 0 3.24162005
Link 12 9 95 0 -0.12139655
Link 23 10 123 0 1.76951661
Link 3 36 160 0 0.81966204
Link 36 11 161 0 1.29542814
Link 23 49 237 0 2.04885199
Link 13 17 281 0 1.15498330
Link 7 23 318 0 -2.29514875
Link 85 9 441 0 -1.45042321
Link 94 23 480 0 0.45095660
Link 36 94 485 0 0.68440784
Link 36 23 870 0 0.94558518
Link 16 179 1080 0 1.00000000
Link 179 23 1081 0 0.08853540
Link 5 186 1116 0 1.35554813
Link 186 94 1117 0 0.50790772
Link 1 197 1205 0 1.91350389
Link 18 36 1207 0 -0.96477795
Link 198 200 1224 0 1.02965955
Link 200 13 1225 0 1.31297584
Link 18 9 1232 0 -0.09844884
Link 44 202 1246 0 0.90217706
Link 18 208 1295 0 -0.18940711
Link 208 198 1296 0 -0.35355954
Link 5 197 1324 0 -0.44078368
Link 17 212 1334 0 1.15942719
Link 212 44 1335 0 1.72783161
Link 199 213 1337 0 0.44806036
Link 213 20 1338 0 3.25016885
Link 215 199 1354 0 0.72782033
Link 18 217 1368 0 1.11292391
Link 197 218 1383 0 1.06681082
Link 4 219 1389 0 1.00000000
Link 219 16 1390 0 -0.05157048
Link 7 202 1443 0 0.03636712
Link 17 202 1454 0 0.49353195
Link 197 208 1466 0 0.22578825
Link 200 199 1558 0 0.80107270
Link 198 8 1604 0 0.48673670
Link 2 249 1648 0 1.69220132
Link 249 254 1680 0 0.77028100
Link 254 200 1681 0 -0.65284541
Link 197 256 1705 0 0.80670830
Link 256 36 1706 0 -1.20308630
Link 259 85 1730 0 0.66338800
Link 202 261 1735 0 1.27717376
Link 261 215 1736 0 0.71139645
Link 272 20 1824 0 0.49466532
Link 208 94 1825 0 0.81361329
Link 10 279 1900 0 0.93271760
Link 16 85 2044 0 0.21970633
Link 3 256 2135 0 -0.39642512
Link 1 321 2252 0 1.00000000
Link 321 94 2253 0 0.24108540
Link 217 325 2290 0 1.00000000
Link 325 272 2291 0 0.66156721
Link 18 261 2296 0 0.26613868
Link 226 347 2508 0 1.00000000
Link 347 197 2509 0 -0.14180537
Link 186 198 2537 0 0.69197462
Link 218 349 2540 0 1.00000000
Link 186 213 2550 0 0.05006600
Link 49 351 2559 0 1.00000000
Link 351 259 2560 0 1.00000000
Link 279 353 2579 0 1.00000000
Link 353 199 2580 0 -0.34753350
Link 3 356 2608 0 1.00000000
Link 356 23 2609 0 0.18700493
Link 3 279 2611 0 0.26433786
Link 197 358 2621 0 1.00000000
Link 358 16 2622 0 0.18485209
Link 23 279 2636 0 0.85983993
Link 94 356 2658 0 -0.30204307
Link 351 215 2669 0 0.34944422
Link 349 361 2675 0 0.24361322
Link 361 16 2676 0 -0.21291611
Link 4 370 2767 0 1.00000000
Link 370 272 2768 0 -0.31329721
Link 18 372 2790 0 1.00000000
Link 372 226 2791 0 0.80314234
Link 4 179 2858 0 -0.03392393
Link 219 179 3049 0 -0.31723343
Link 256 358 3107 0 0.56937459
Link 3 358 3174 0 0.76011914
GenomeEnd

