GenomeStart 460052
Neuron 1 1 0.00000000 1 0.00000000 0.00000000 0.00000000 0.00000000
Neuron 2 1 0.00000000 1 0.00000000 0.00000000 0.00000000 0.00000000
Neuron 3 1 0.00000000 1 0.00000000 0.00000000 0.00000000 0.00000000
Neuron 4 1 0.00000000 1 0.00000000 0.00000000 0.00000000 0.00000000
Neuron 5 1 0.00000000 1 0.00000000 0.00000000 0.00000000 0.00000000
Neuron 6 1 0.00000000 1 0.00000000 0.00000000 0.00000000 0.00000000
Neuron 7 2 0.00000000 1 0.00000000 0.00000000 0.00000000 0.00000000
Neuron 8 4 1.00000000 0 1.00000000 0.00000000 0.00000000 0.00000000
Neuron 9 4 1.00000000 5 1.00000000 0.00000000 0.00000000 0.00000000
Neuron 10 3 0.50000000 6 1.00000000 0.00000000 0.00000000 0.00000000
Neuron 11 3 0.50000000 6 1.00000000 0.00000000 0.00000000 0.00000000
Neuron 37 3 0.50000000 0 1.00000000 0.00000000 0.00000000 0.00000000
Neuron 38 3 0.50000000 8 1.00000000 0.00000000 0.00000000 0.00000000
Neuron 43 3 0.50000000 0 1.00000000 0.00000000 0.00000000 0.00000000
Neuron 66 3 0.25000000 13 1.00000000 0.00000000 0.00000000 0.00000000
Neuron 79 3 0.75000000 13 1.00000000 0.00000000 0.00000000 0.00000000
Neuron 97 3 0.25000000 0 1.00000000 0.00000000 0.00000000 0.00000000
Neuron 108 3 0.25000000 9 1.00000000 0.00000000 0.00000000 0.00000000
Neuron 115 3 0.50000000 9 1.00000000 0.00000000 0.00000000 0.00000000
Neuron 121 3 0.75000000 0 1.00000000 0.00000000 0.00000000 0.00000000
Neuron 129 3 0.12500000 6 1.00000000 0.00000000 0.00000000 0.00000000
Neuron 131 3 0.50000000 9 1.00000000 0.00000000 0.00000000 0.00000000
Neuron 151 3 0.50000000 13 1.00000000 0.00000000 0.00000000 0.00000000
Neuron 162 3 0.12500000 13 1.00000000 0.00000000 0.00000000 0.00000000
Neuron 169 3 0.37500000 0 1.00000000 0.00000000 0.00000000 0.00000000
Neuron 190 3 0.37500000 0 1.00000000 0.00000000 0.00000000 0.00000000
Neuron 193 3 0.62500000 0 1.00000000 0.00000000 0.00000000 0.00000000
Neuron 196 3 0.25000000 0 1.00000000 0.00000000 0.00000000 0.00000000
Neuron 198 3 0.18750000 6 1.00000000 0.00000000 0.00000000 0.00000000
Neuron 204 3 0.37500000 13 1.00000000 0.00000000 0.00000000 0.00000000
Neuron 219 3 0.50000000 8 1.00000000 0.00000000 0.00000000 0.00000000
Neuron 220 3 0.37500000 8 1.00000000 0.00000000 0.00000000 0.00000000
Neuron 228 3 0.25000000 0 1.00000000 0.00000000 0.00000000 0.00000000
Neuron 234 3 0.12500000 13 1.00000000 0.00000000 0.00000000 0.00000000
Neuron 241 3 0.25000000 13 1.00000000 0.00000000 0.00000000 0.00000000
Neuron 250 3 0.18750000 9 1.00000000 0.00000000 0.00000000 0.00000000
Neuron 251 3 0.12500000 13 1.00000000 0.00000000 0.00000000 0.00000000
Neuron 259 3 0.43750000 13 1.00000000 0.00000000 0.00000000 0.00000000
Neuron 260 3 0.43750000 9 1.00000000 0.00000000 0.00000000 0.00000000
Neuron 266 3 0.25000000 13 1.00000000 0.00000000 0.00000000 0.00000000
Neuron 272 3 0.12500000 0 1.00000000 0.00000000 0.00000000 0.00000000
Neuron 285 3 0.18750000 8 1.00000000 0.00000000 0.00000000 0.00000000
Neuron 288 3 0.31250000 8 1.00000000 0.00000000 0.00000000 0.00000000
Neuron 289 3 0.25000000 13 1.00000000 0.00000000 0.00000000 0.00000000
Neuron 300 3 0.31250000 9 1.00000000 0.00000000 0.00000000 0.00000000
Neuron 302 3 0.06250000 8 1.00000000 0.00000000 0.00000000 0.00000000
Neuron 305 3 0.37500000 0 1.00000000 0.00000000 0.00000000 0.00000000
Neuron 306 3 0.25000000 13 1.00000000 0.00000000 0.00000000 0.00000000
Neuron 321 3 0.12500000 0 1.00000000 0.00000000 0.00000000 0.00000000
Neuron 323 3 0.40625000 6 1.00000000 0.00000000 0.00000000 0.00000000
Neuron 324 3 0.62500000 8 1.00000000 0.00000000 0.00000000 0.00000000
Neuron 327 3 0.75000000 9 1.00000000 0.00000000 0.00000000 0.00000000
Neuron 333 3 0.21875000 8 1.00000000 0.00000000 0.00000000 0.00000000
Neuron 337 3 0.62500000 13 1.00000000 0.00000000 0.00000000 0.00000000
Neuron 348 3 0.56250000 0 1.00000000 0.00000000 0.00000000 0.00000000
Neuron 349 3 0.37500000 9 1.00000000 0.00000000 0.00000000 0.00000000
Neuron 370 3 0.37500000 0 1.00000000 0.00000000 0.00000000 0.00000000
Neuron 375 3 0.37500000 8 1.00000000 0.00000000 0.00000000 0.00000000
Neuron 377 3 0.43750000 13 1.00000000 0.00000000 0.00000000 0.00000000
Neuron 380 3 0.18750000 9 1.00000000 0.00000000 0.00000000 0.00000000
Neuron 382 3 0.59375000 6 1.00000000 0.00000000 0.00000000 0.00000000
Neuron 393 3 0.75000000 13 1.00000000 0.00000000 0.00000000 0.00000000
Neuron 407 3 0.31250000 0 1.00000000 0.00000000 0.00000000 0.00000000
Neuron 408 3 0.25000000 13 1.00000000 0.00000000 0.00000000 0.00000000
Neuron 412 3 0.53125000 9 1.00000000 0.00000000 0.00000000 0.00000000
Neuron 427 3 0.43750000 0 1.00000000 0.00000000 0.00000000 0.00000000
Neuron 433 3 0.25000000 8 1.00000000 0.00000000 0.00000000 0.00000000
Neuron 447 3 0.56250000 8 1.00000000 0.00000000 0.00000000 0.00000000
Neuron 471 3 0.06250000 8 1.00000000 0.00000000 0.00000000 0.00000000
Neuron 475 3 0.25000000 8 1.00000000 0.00000000 0.00000000 0.00000000
Neuron 494 3 0.37500000 13 1.00000000 0.00000000 0.00000000 0.00000000
Neuron 507 3 0.53125000 9 1.00000000 0.00000000 0.00000000 0.00000000
Neuron 522 3 0.18750000 9 1.00000000 0.00000000 0.00000000 0.00000000
Neuron 552 3 0.56250000 0 1.00000000 0.00000000 0.00000000 0.00000000
Neuron 664 3 0.18750000 0 1.00000000 0.00000000 0.00000000 0.00000000
Neuron 675 3 0.53125000 0 1.00000000 0.00000000 0.00000000 0.00000000
Neuron 684 3 0.50000000 0 1.00000000 0.00000000 0.00000000 0.00000000
Neuron 685 3 0.34375000 0 1.00000000 0.00000000 0.00000000 0.00000000
Neuron 787 3 0.12500000 9 1.00000000 0.00000000 0.00000000 0.00000000
Neuron 799 3 0.65625000 8 1.00000000 0.00000000 0.00000000 0.00000000
Neuron 803 3 0.12500000 9 1.00000000 0.00000000 0.00000000 0.00000000
Link 2 10 1 0 -0.59774671
Link 5 10 2 0 -0.91132603
Link 10 8 3 0 1.79386708
Link 7 10 4 0 0.25377903
Link 1 11 5 0 -0.34194673
Link 4 11 6 0 0.84903842
Link 11 9 7 0 1.77140831
Link 7 9 8 0 -1.13279957
Link 3 10 13 0 -0.39328054
Link 5 8 23 0 0.09106852
Link 7 11 29 0 -0.12671334
Link 1 8 35 0 0.11205803
Link 1 10 78 0 0.00173455
Link 5 37 173 0 1.00000000
Link 37 9 174 0 0.51332703
Link 10 38 178 0 1.00000000
Link 38 11 179 0 -0.08924212
Link 4 43 196 0 1.00000000
Link 5 66 353 0 1.00000000
Link 66 11 354 0 0.42063305
Link 11 79 483 0 1.00000000
Link 79 8 484 0 -0.01147218
Link 5 43 561 0 0.10009807
Link 43 11 564 0 0.17138926
Link 2 97 598 0 1.00000000
Link 3 108 667 0 1.00000000
Link 10 115 713 0 1.00000000
Link 115 43 714 0 0.01359617
Link 43 121 747 0 1.00000000
Link 121 8 748 0 0.21348674
Link 4 129 798 0 1.00000000
Link 5 131 806 0 1.00000000
Link 131 9 807 0 0.20483465
Link 1 121 811 0 -0.01842104
Link 108 8 830 0 0.33577712
Link 7 37 839 0 0.37376071
Link 3 121 885 0 0.17417818
Link 97 43 888 0 0.02351582
Link 1 66 926 0 -0.34896314
Link 7 97 1027 0 0.18055525
Link 3 162 1046 0 1.00000000
Link 162 97 1047 0 0.54273207
Link 97 169 1085 0 1.00000000
Link 169 11 1086 0 0.03534939
Link 108 190 1210 0 1.00000000
Link 190 10 1211 0 -0.59324034
Link 10 193 1231 0 1.00000000
Link 193 121 1232 0 0.27689804
Link 2 196 1256 0 1.00000000
Link 196 43 1257 0 -0.09422787
Link 129 198 1263 0 1.00000000
Link 198 66 1264 0 0.02045385
Link 66 169 1269 0 -0.36227880
Link 3 204 1300 0 1.00000000
Link 204 121 1301 0 0.19148464
Link 6 169 1315 0 0.30759963
Link 129 169 1324 0 0.39299999
Link 129 43 1338 0 0.20034475
Link 108 219 1415 0 1.00000000
Link 219 121 1416 0 0.34421735
Link 108 220 1424 0 1.00000000
Link 108 228 1480 0 1.00000000
Link 3 220 1495 0 -0.36163614
Link 1 169 1510 0 -0.18560213
Link 5 234 1521 0 1.00000000
Link 108 241 1575 0 1.00000000
Link 241 66 1576 0 0.34639086
Link 97 220 1595 0 -0.67000696
Link 220 37 1606 0 0.44431476
Link 4 228 1620 0 -0.70108171
Link 1 250 1638 0 1.00000000
Link 250 220 1639 0 -0.21976064
Link 129 97 1640 0 -0.44416369
Link 3 251 1656 0 1.00000000
Link 251 228 1657 0 -0.15635410
Link 259 43 1719 0 -0.05281675
Link 169 260 1729 0 1.00000000
Link 260 11 1730 0 0.06223523
Link 228 220 1736 0 0.27303226
Link 228 266 1772 0 1.00000000
Link 266 97 1773 0 0.49657208
Link 266 169 1790 0 0.00577444
Link 4 272 1821 0 1.00000000
Link 272 97 1822 0 -0.08833301
Link 250 259 1829 0 0.49261388
Link 129 259 1853 0 -0.04232277
Link 129 121 1861 0 0.14390939
Link 220 169 1883 0 0.00638658
Link 11 131 1902 0 0.09108980
Link 250 11 1915 0 0.69176565
Link 4 37 1925 0 -0.35331378
Link 234 285 1927 0 1.00000000
Link 285 97 1928 0 0.09545451
Link 204 259 1934 0 -0.13048368
Link 259 79 1943 0 0.54562107
Link 66 288 1952 0 1.00000000
Link 288 220 1953 0 -0.22706223
Link 196 228 1960 0 0.30986024
Link 2 289 1963 0 1.00000000
Link 289 43 1964 0 -0.14902896
Link 288 259 1972 0 0.35006110
Link 66 79 1989 0 -0.47642062
Link 3 196 2009 0 -0.01463641
Link 108 300 2036 0 1.00000000
Link 300 204 2037 0 0.49587987
Link 5 266 2042 0 -0.23362353
Link 3 302 2050 0 1.00000000
Link 302 234 2051 0 0.31224111
Link 305 43 2069 0 -0.10832603
Link 196 306 2074 0 1.00000000
Link 305 169 2091 0 0.21916218
Link 285 305 2098 0 0.20058920
Link 220 79 2124 0 -0.02045274
Link 321 66 2163 0 -0.00964996
Link 220 323 2168 0 1.00000000
Link 323 259 2169 0 1.00000000
Link 324 121 2172 0 -0.13459035
Link 285 241 2182 0 -0.27675072
Link 11 324 2186 0 -0.02379309
Link 121 327 2188 0 1.00000000
Link 250 333 2226 0 1.00000000
Link 333 97 2227 0 0.75523979
Link 266 66 2234 0 -0.24320478
Link 37 337 2251 0 1.00000000
Link 337 79 2252 0 -0.51236601
Link 37 324 2261 0 -0.10558570
Link 234 305 2270 0 0.32529084
Link 151 219 2271 0 -0.03809739
Link 97 305 2279 0 0.14670771
Link 228 38 2281 0 0.37685516
Link 4 266 2307 0 -0.20970036
Link 4 234 2319 0 -0.90471303
Link 1 285 2322 0 0.61354199
Link 97 349 2345 0 1.00000000
Link 349 151 2346 0 1.00000000
Link 285 288 2351 0 0.51901156
Link 1 151 2364 0 -0.55034967
Link 219 43 2395 0 0.12763621
Link 228 204 2431 0 -0.76340653
Link 38 43 2460 0 -0.07405344
Link 66 151 2464 0 0.13286345
Link 234 324 2503 0 -0.20577800
Link 241 370 2509 0 1.00000000
Link 370 219 2510 0 0.13952802
Link 169 375 2534 0 1.00000000
Link 375 220 2535 0 -0.37277001
Link 220 377 2548 0 1.00000000
Link 377 219 2549 0 -0.44731245
Link 4 380 2570 0 1.00000000
Link 380 305 2571 0 0.06368377
Link 348 382 2593 0 1.00000000
Link 382 324 2594 0 1.00000000
Link 250 305 2604 0 0.27148034
Link 327 393 2695 0 1.00000000
Link 393 79 2696 0 -0.92205193
Link 380 337 2814 0 0.16644682
Link 196 407 2823 0 1.00000000
Link 407 305 2824 0 1.00000000
Link 306 408 2827 0 1.00000000
Link 408 97 2828 0 -0.39873374
Link 151 412 2849 0 1.00000000
Link 412 348 2850 0 1.00000000
Link 228 348 2865 0 -0.37462614
Link 228 427 2949 0 1.00000000
Link 43 348 2989 0 0.37640040
Link 241 305 3004 0 -0.22238925
Link 433 151 3007 0 -0.18183079
Link 97 241 3034 0 0.07350071
Link 348 79 3082 0 0.19875059
Link 305 447 3117 0 1.00000000
Link 79 393 3120 0 -0.02342891
Link 260 43 3122 0 0.05608842
Link 193 393 3126 0 0.19180837
Link 129 266 3136 0 -0.40332433
Link 37 348 3186 0 -0.95382784
Link 219 193 3189 0 0.28421723
Link 407 204 3192 0 -0.28824099
Link 380 327 3208 0 -0.40455348
Link 393 121 3257 0 0.24177511
Link 2 471 3316 0 1.00000000
Link 471 321 3317 0 1.00000000
Link 300 8 3327 0 0.02755729
Link 129 475 3347 0 1.00000000
Link 475 220 3348 0 0.02606941
Link 305 219 3396 0 0.03975621
Link 250 324 3411 0 0.17970299
Link 250 348 3431 0 0.01335990
Link 204 494 3488 0 1.00000000
Link 494 220 3489 0 0.30766499
Link 131 348 3501 0 -0.01398561
Link 2 380 3584 0 -0.35573875
Link 427 507 3609 0 1.00000000
Link 507 193 3610 0 0.03462808
Link 333 79 3677 0 -0.35886266
Link 204 305 3686 0 -0.00342192
Link 427 79 3707 0 -0.56440503
Link 4 522 3715 0 1.00000000
Link 522 169 3716 0 -0.03346352
Link 198 324 3736 0 0.27123795
Link 285 377 3789 0 0.20644197
Link 377 79 3799 0 -0.26956846
Link 285 380 3819 0 -0.95222512
Link 241 193 3858 0 -0.64149384
Link 349 337 3919 0 0.05122059
Link 302 79 3993 0 -0.28595151
Link 427 10 4016 0 -0.12207558
Link 349 305 4036 0 0.32610886
Link 196 300 4037 0 0.26379889
Link 552 193 4052 0 0.41421371
Link 302 393 4139 0 0.00946926
Link 169 370 4152 0 -0.79468706
Link 198 494 4155 0 0.16972415
Link 3 151 4239 0 -0.72201136
Link 285 507 4258 0 0.66846236
Link 7 198 4350 0 0.15962917
Link 66 370 4409 0 -0.18196967
Link 302 204 4416 0 -0.66437156
Link 234 198 4447 0 0.07172813
Link 427 43 4517 0 0.26521793
Link 285 323 4549 0 0.62731465
Link 108 507 4567 0 -0.13302914
Link 302 337 4578 0 -0.11724623
Link 5 321 4611 0 0.51058458
Link 266 407 4730 0 -0.04095107
Link 7 289 4794 0 -0.04837933
Link 380 285 4870 0 -0.31949661
Link 494 382 4894 0 0.64524432
Link 4 162 4904 0 -0.03989514
Link 285 664 4969 0 1.00000000
Link 664 198 4970 0 -0.21857548
Link 288 377 5003 0 -0.10163344
Link 2 507 5024 0 0.08663797
Link 43 675 5061 0 1.00000000
Link 675 552 5062 0 1.00000000
Link 288 324 5086 0 0.68783708
Link 196 684 5099 0 1.00000000
Link 684 393 5100 0 -0.27453769
Link 380 685 5103 0 1.00000000
Link 685 131 5104 0 0.08823657
Link 5 375 5189 0 0.46646221
Link 4 475 5304 0 0.22026831
Link 196 337 5338 0 0.12783468
Link 4 382 5421 0 -0.74082622
Link 196 323 5485 0 -0.30028268
Link 302 348 5549 0 -0.42777349
Link 251 38 5590 0 0.07515561
Link 2 552 5599 0 0.00481168
Link 370 204 5763 0 -0.06027086
Link 285 494 5771 0 0.03551094
Link 471 151 5811 0 0.06529459
Link 380 377 5869 0 -0.26755957
Link 129 787 5882 0 1.00000000
Link 787 234 5883 0 0.05947356
Link 302 323 5930 0 0.12882706
Link 190 219 5941 0 0.76090215
Link 664 300 5960 0 -0.19937432
Link 447 799 5975 0 1.00000000
Link 799 79 5976 0 -0.26541381
Link 4 803 6006 0 1.00000000
Link 803 433 6007 0 1.00000000
Link 272 407 6017 0 0.52953967
Link 787 799 6036 0 -0.13809930
Link 471 289 6070 0 0.25009523
Link 522 323 6108 0 -0.13972321
Link 38 393 6137 0 -0.09268610
GenomeEnd

