GenomeStart 99993
Neuron 1 1 0.00000000 1 0.00000000 0.00000000 0.00000000 0.00000000
Neuron 2 1 0.00000000 1 0.00000000 0.00000000 0.00000000 0.00000000
Neuron 3 1 0.00000000 1 0.00000000 0.00000000 0.00000000 0.00000000
Neuron 4 1 0.00000000 1 0.00000000 0.00000000 0.00000000 0.00000000
Neuron 5 1 0.00000000 1 0.00000000 0.00000000 0.00000000 0.00000000
Neuron 6 1 0.00000000 1 0.00000000 0.00000000 0.00000000 0.00000000
Neuron 7 2 0.00000000 1 0.00000000 0.00000000 0.00000000 0.00000000
Neuron 8 4 1.00000000 0 1.00000000 0.00000000 0.00000000 0.00000000
Neuron 9 4 1.00000000 5 1.00000000 0.00000000 0.00000000 0.00000000
Neuron 10 3 0.50000000 6 1.00000000 0.00000000 0.00000000 0.00000000
Neuron 11 3 0.50000000 6 1.00000000 0.00000000 0.00000000 0.00000000
Neuron 37 3 0.50000000 0 1.00000000 0.00000000 0.00000000 0.00000000
Neuron 43 3 0.50000000 0 1.00000000 0.00000000 0.00000000 0.00000000
Neuron 66 3 0.25000000 13 1.00000000 0.00000000 0.00000000 0.00000000
Neuron 97 3 0.25000000 0 1.00000000 0.00000000 0.00000000 0.00000000
Neuron 108 3 0.25000000 9 1.00000000 0.00000000 0.00000000 0.00000000
Neuron 121 3 0.75000000 0 1.00000000 0.00000000 0.00000000 0.00000000
Link 2 10 1 0 -0.59774671
Link 5 10 2 0 -0.91132603
Link 10 8 3 0 1.79386708
Link 7 10 4 0 0.25377903
Link 1 11 5 0 -0.34194673
Link 4 11 6 0 0.84903842
Link 11 9 7 0 1.77140831
Link 7 9 8 0 -1.13279957
Link 3 10 13 0 -0.39328054
Link 5 8 23 0 0.09106852
Link 7 11 29 0 -0.12671334
Link 1 8 35 0 0.11205803
Link 5 9 51 0 0.20483465
Link 11 8 56 0 -0.01147218
Link 1 10 78 0 0.00173455
Link 5 37 173 0 1.00000000
Link 37 9 174 0 0.51332703
Link 4 43 196 0 1.00000000
Link 5 66 353 0 1.00000000
Link 66 11 354 0 0.42063305
Link 4 66 461 0 0.02045385
Link 5 43 561 0 0.10009807
Link 43 11 564 0 0.17138926
Link 2 43 591 0 -0.10832603
Link 2 97 598 0 1.00000000
Link 97 11 599 0 0.06223523
Link 3 108 667 0 1.00000000
Link 108 43 668 0 -0.05281675
Link 10 43 682 0 0.01359617
Link 43 121 747 0 1.00000000
Link 121 8 748 0 0.21348674
Link 3 97 783 0 0.54273207
Link 108 97 786 0 0.49657208
Link 1 121 811 0 -0.01842104
Link 108 121 825 0 0.34421735
Link 108 8 830 0 0.33577712
Link 7 37 839 0 0.37376071
Link 97 121 840 0 -0.13459035
Link 10 121 853 0 0.27689804
Link 108 10 879 0 -0.59324034
Link 1 66 926 0 -0.34896314
GenomeEnd

