GenomeStart 19989
Neuron 1 1 0.00000000 1 0.00000000 0.00000000 0.00000000 0.00000000
Neuron 2 1 0.00000000 1 0.00000000 0.00000000 0.00000000 0.00000000
Neuron 3 1 0.00000000 1 0.00000000 0.00000000 0.00000000 0.00000000
Neuron 4 1 0.00000000 1 0.00000000 0.00000000 0.00000000 0.00000000
Neuron 5 1 0.00000000 1 0.00000000 0.00000000 0.00000000 0.00000000
Neuron 6 1 0.00000000 1 0.00000000 0.00000000 0.00000000 0.00000000
Neuron 7 2 0.00000000 1 0.00000000 0.00000000 0.00000000 0.00000000
Neuron 8 4 1.00000000 0 1.00000000 0.00000000 0.00000000 0.00000000
Neuron 9 4 1.00000000 5 1.00000000 0.00000000 0.00000000 0.00000000
Neuron 10 3 0.50000000 6 1.00000000 0.00000000 0.00000000 0.00000000
Neuron 11 3 0.50000000 6 1.00000000 0.00000000 0.00000000 0.00000000
Neuron 13 3 0.25000000 0 1.00000000 0.00000000 0.00000000 0.00000000
Neuron 18 3 0.25000000 9 1.00000000 0.00000000 0.00000000 0.00000000
Neuron 19 3 0.12500000 8 1.00000000 0.00000000 0.00000000 0.00000000
Link 5 10 2 0 0.26770830
Link 10 8 3 0 -3.94073199
Link 7 10 4 0 -0.85366172
Link 1 11 5 0 0.58126619
Link 11 9 7 0 0.90097579
Link 7 9 8 0 -0.11876934
Link 13 11 22 0 -0.07798722
Link 2 9 31 0 0.09290449
Link 2 13 37 0 -1.25677175
Link 2 18 46 0 1.81127985
Link 18 10 47 0 0.72054959
Link 3 11 50 0 1.19359059
Link 5 9 51 0 0.28258715
Link 4 19 60 0 1.56586448
Link 19 13 61 0 1.01726423
Link 19 10 98 0 -1.00891268
GenomeEnd

