GenomeStart 280015
Neuron 1 1 0.00000000 1 0.00000000 0.00000000 0.00000000 0.00000000
Neuron 2 1 0.00000000 1 0.00000000 0.00000000 0.00000000 0.00000000
Neuron 3 1 0.00000000 1 0.00000000 0.00000000 0.00000000 0.00000000
Neuron 4 1 0.00000000 1 0.00000000 0.00000000 0.00000000 0.00000000
Neuron 5 1 0.00000000 1 0.00000000 0.00000000 0.00000000 0.00000000
Neuron 6 1 0.00000000 1 0.00000000 0.00000000 0.00000000 0.00000000
Neuron 7 2 0.00000000 1 0.00000000 0.00000000 0.00000000 0.00000000
Neuron 8 4 1.00000000 0 1.00000000 0.00000000 0.00000000 0.00000000
Neuron 9 4 1.00000000 5 1.00000000 0.00000000 0.00000000 0.00000000
Neuron 10 3 0.50000000 6 1.00000000 0.00000000 0.00000000 0.00000000
Neuron 11 3 0.50000000 6 1.00000000 0.00000000 0.00000000 0.00000000
Neuron 13 3 0.25000000 13 1.00000000 0.00000000 0.00000000 0.00000000
Neuron 16 3 0.25000000 8 1.00000000 0.00000000 0.00000000 0.00000000
Neuron 17 3 0.75000000 0 1.00000000 0.00000000 0.00000000 0.00000000
Neuron 18 3 0.12500000 9 1.00000000 0.00000000 0.00000000 0.00000000
Neuron 20 3 0.87500000 8 1.00000000 0.00000000 0.00000000 0.00000000
Neuron 23 3 0.50000000 0 1.00000000 0.00000000 0.00000000 0.00000000
Neuron 36 3 0.25000000 6 1.00000000 0.00000000 0.00000000 0.00000000
Neuron 44 3 0.81250000 6 1.00000000 0.00000000 0.00000000 0.00000000
Neuron 49 3 0.75000000 13 1.00000000 0.00000000 0.00000000 0.00000000
Neuron 85 3 0.87500000 0 1.00000000 0.00000000 0.00000000 0.00000000
Neuron 94 3 0.25000000 13 1.00000000 0.00000000 0.00000000 0.00000000
Neuron 186 3 0.12500000 8 1.00000000 0.00000000 0.00000000 0.00000000
Neuron 197 3 0.12500000 6 1.00000000 0.00000000 0.00000000 0.00000000
Neuron 198 3 0.18750000 8 1.00000000 0.00000000 0.00000000 0.00000000
Neuron 199 3 0.84375000 0 1.00000000 0.00000000 0.00000000 0.00000000
Neuron 200 3 0.21875000 0 1.00000000 0.00000000 0.00000000 0.00000000
Neuron 202 3 0.82812500 8 1.00000000 0.00000000 0.00000000 0.00000000
Neuron 208 3 0.15625000 0 1.00000000 0.00000000 0.00000000 0.00000000
Neuron 212 3 0.78125000 8 1.00000000 0.00000000 0.00000000 0.00000000
Neuron 213 3 0.85937500 6 1.00000000 0.00000000 0.00000000 0.00000000
Neuron 215 3 0.83593750 8 1.00000000 0.00000000 0.00000000 0.00000000
Neuron 217 3 0.50000000 0 1.00000000 0.00000000 0.00000000 0.00000000
Neuron 249 3 0.10937500 9 1.00000000 0.00000000 0.00000000 0.00000000
Neuron 256 3 0.18750000 8 1.00000000 0.00000000 0.00000000 0.00000000
Neuron 261 3 0.83203125 8 1.00000000 0.00000000 0.00000000 0.00000000
Neuron 272 3 0.68750000 0 1.00000000 0.00000000 0.00000000 0.00000000
Link 2 10 1 0 3.07310272
Link 10 8 3 0 3.96980417
Link 7 10 4 0 -0.76534169
Link 4 11 6 0 -1.26436526
Link 7 9 8 0 -2.25208084
Link 13 11 16 0 -0.17117861
Link 7 8 27 0 -2.43259206
Link 5 16 32 0 2.88092542
Link 16 10 33 0 -0.17741476
Link 11 17 36 0 4.15625646
Link 4 16 41 0 0.15865174
Link 1 18 51 0 1.64192383
Link 6 8 53 0 0.47871357
Link 20 9 60 0 -0.07906309
Link 2 23 70 0 0.88211453
Link 5 8 79 0 3.15751482
Link 23 10 123 0 1.26433092
Link 3 36 160 0 0.62526067
Link 36 11 161 0 1.76910174
Link 23 49 237 0 1.87888767
Link 13 17 281 0 0.65952981
Link 7 23 318 0 -2.04601564
Link 49 85 440 0 1.08129565
Link 85 9 441 0 -0.91212142
Link 94 23 480 0 0.29179634
Link 36 23 870 0 0.62861593
Link 16 23 1056 0 0.12270825
Link 5 186 1116 0 1.00000000
Link 186 94 1117 0 1.00000000
Link 1 197 1205 0 1.12781026
Link 197 16 1206 0 -0.52810729
Link 18 36 1207 0 -1.07795121
Link 198 200 1224 0 1.29913396
Link 200 13 1225 0 1.21134502
Link 18 9 1232 0 -0.42332758
Link 44 202 1246 0 1.05464604
Link 18 197 1251 0 0.33476987
Link 18 208 1295 0 0.52304522
Link 208 198 1296 0 0.20911841
Link 17 212 1334 0 1.00000000
Link 212 44 1335 0 1.73413345
Link 199 213 1337 0 1.00000000
Link 213 20 1338 0 3.35724161
Link 215 199 1354 0 0.59007300
Link 18 217 1368 0 1.00000000
Link 7 202 1443 0 -0.43061673
Link 17 202 1454 0 0.52751885
Link 197 208 1466 0 0.10170424
Link 200 199 1558 0 0.67312086
Link 198 8 1604 0 -0.21212333
Link 10 199 1639 0 0.14712023
Link 2 249 1648 0 1.16919755
Link 249 200 1649 0 -0.53554630
Link 197 256 1705 0 1.00000000
Link 256 36 1706 0 -0.36404460
Link 202 261 1735 0 1.00000000
Link 261 215 1736 0 0.94760922
Link 217 272 1823 0 1.00000000
Link 272 20 1824 0 0.37693251
Link 208 94 1825 0 0.87704697
Link 3 256 2135 0 -0.41931247
Link 16 217 2149 0 0.13753309
GenomeEnd

