GenomeStart 59990
Neuron 1 1 0.00000000 1 0.00000000 0.00000000 0.00000000 0.00000000
Neuron 2 1 0.00000000 1 0.00000000 0.00000000 0.00000000 0.00000000
Neuron 3 1 0.00000000 1 0.00000000 0.00000000 0.00000000 0.00000000
Neuron 4 1 0.00000000 1 0.00000000 0.00000000 0.00000000 0.00000000
Neuron 5 1 0.00000000 1 0.00000000 0.00000000 0.00000000 0.00000000
Neuron 6 1 0.00000000 1 0.00000000 0.00000000 0.00000000 0.00000000
Neuron 7 2 0.00000000 1 0.00000000 0.00000000 0.00000000 0.00000000
Neuron 8 4 1.00000000 0 1.00000000 0.00000000 0.00000000 0.00000000
Neuron 9 4 1.00000000 4 1.00000000 0.00000000 0.00000000 0.00000000
Neuron 10 3 0.50000000 6 1.00000000 0.00000000 0.00000000 0.00000000
Neuron 11 3 0.50000000 6 1.00000000 0.00000000 0.00000000 0.00000000
Neuron 14 3 0.25000000 13 1.00000000 0.00000000 0.00000000 0.00000000
Neuron 15 3 0.75000000 6 1.00000000 0.00000000 0.00000000 0.00000000
Neuron 24 3 0.87500000 0 1.00000000 0.00000000 0.00000000 0.00000000
Link 2 10 1 0 -2.88016217
Link 7 10 3 0 1.27038340
Link 1 11 4 0 0.66733012
Link 4 11 5 0 4.73660123
Link 7 9 6 0 -4.80687156
Link 10 8 7 0 -1.63632008
Link 7 8 16 0 -0.26195729
Link 5 8 27 0 -1.43860333
Link 5 14 31 0 2.22154475
Link 14 10 32 0 2.12107225
Link 11 15 35 0 1.22221407
Link 15 24 86 0 -0.54224807
Link 24 9 87 0 -2.45287081
Link 1 14 95 0 -1.14343056
GenomeEnd

