GenomeStart 20058
Neuron 1 1 0.00000000 1 0.00000000 0.00000000 0.00000000 0.00000000
Neuron 2 1 0.00000000 1 0.00000000 0.00000000 0.00000000 0.00000000
Neuron 3 1 0.00000000 1 0.00000000 0.00000000 0.00000000 0.00000000
Neuron 4 1 0.00000000 1 0.00000000 0.00000000 0.00000000 0.00000000
Neuron 5 1 0.00000000 1 0.00000000 0.00000000 0.00000000 0.00000000
Neuron 6 1 0.00000000 1 0.00000000 0.00000000 0.00000000 0.00000000
Neuron 7 2 0.00000000 1 0.00000000 0.00000000 0.00000000 0.00000000
Neuron 8 4 1.00000000 0 1.00000000 0.00000000 0.00000000 0.00000000
Neuron 9 4 1.00000000 4 1.00000000 0.00000000 0.00000000 0.00000000
Neuron 10 3 0.50000000 6 1.00000000 0.00000000 0.00000000 0.00000000
Neuron 11 3 0.50000000 6 1.00000000 0.00000000 0.00000000 0.00000000
Neuron 13 3 0.25000000 13 1.00000000 0.00000000 0.00000000 0.00000000
Neuron 15 3 0.25000000 0 1.00000000 0.00000000 0.00000000 0.00000000
Neuron 16 3 0.25000000 9 1.00000000 0.00000000 0.00000000 0.00000000
Neuron 19 3 0.25000000 8 1.00000000 0.00000000 0.00000000 0.00000000
Link 7 10 3 0 0.01230394
Link 1 11 4 0 1.77090137
Link 7 9 6 0 -0.90913780
Link 10 8 7 0 -0.40107897
Link 11 9 8 0 1.45440829
Link 2 13 16 0 0.70536797
Link 13 10 17 0 -0.30426762
Link 5 15 27 0 0.78244816
Link 15 11 28 0 1.32232176
Link 4 16 32 0 1.46991390
Link 16 11 33 0 -2.61711607
Link 11 8 56 0 -2.34456835
Link 5 19 60 0 0.92935233
Link 19 10 61 0 0.02249599
Link 13 19 113 0 -1.21808528
GenomeEnd

