GenomeStart 40050
Neuron 1 1 0.00000000 1 0.00000000 0.00000000 0.00000000 0.00000000
Neuron 2 1 0.00000000 1 0.00000000 0.00000000 0.00000000 0.00000000
Neuron 3 1 0.00000000 1 0.00000000 0.00000000 0.00000000 0.00000000
Neuron 4 1 0.00000000 1 0.00000000 0.00000000 0.00000000 0.00000000
Neuron 5 1 0.00000000 1 0.00000000 0.00000000 0.00000000 0.00000000
Neuron 6 1 0.00000000 1 0.00000000 0.00000000 0.00000000 0.00000000
Neuron 7 2 0.00000000 1 0.00000000 0.00000000 0.00000000 0.00000000
Neuron 8 4 1.00000000 0 1.00000000 0.00000000 0.00000000 0.00000000
Neuron 9 4 1.00000000 4 1.00000000 0.00000000 0.00000000 0.00000000
Neuron 10 3 0.50000000 6 1.00000000 0.00000000 0.00000000 0.00000000
Neuron 11 3 0.50000000 6 1.00000000 0.00000000 0.00000000 0.00000000
Neuron 13 3 0.25000000 13 1.00000000 0.00000000 0.00000000 0.00000000
Neuron 15 3 0.25000000 0 1.00000000 0.00000000 0.00000000 0.00000000
Neuron 16 3 0.25000000 9 1.00000000 0.00000000 0.00000000 0.00000000
Neuron 19 3 0.25000000 8 1.00000000 0.00000000 0.00000000 0.00000000
Neuron 28 3 0.37500000 13 1.00000000 0.00000000 0.00000000 0.00000000
Neuron 45 3 0.25000000 6 1.00000000 0.00000000 0.00000000 0.00000000
Link 7 10 3 0 0.11541547
Link 1 11 4 0 1.60949282
Link 7 9 6 0 -1.58372339
Link 10 8 7 0 0.06964576
Link 11 9 8 0 1.71007738
Link 2 13 16 0 1.63346159
Link 5 15 27 0 0.68484316
Link 15 11 28 0 0.97428238
Link 4 16 32 0 1.27333671
Link 16 11 33 0 -2.62900298
Link 11 8 56 0 -1.84658440
Link 5 19 60 0 1.23935691
Link 19 10 61 0 0.27932470
Link 1 10 81 0 0.06482490
Link 13 19 113 0 -1.67470320
Link 13 28 116 0 1.00000000
Link 28 10 117 0 -0.67156489
Link 7 19 131 0 -0.04135807
Link 15 13 148 0 0.37753504
Link 15 10 152 0 -0.04520281
Link 16 45 240 0 1.00000000
Link 45 13 241 0 0.09892993
Link 15 28 250 0 0.11855800
Link 2 28 270 0 0.10478027
GenomeEnd

