GenomeStart 9997
Neuron 1 1 0.00000000 1 0.00000000 0.00000000 0.00000000 0.00000000
Neuron 2 1 0.00000000 1 0.00000000 0.00000000 0.00000000 0.00000000
Neuron 3 1 0.00000000 1 0.00000000 0.00000000 0.00000000 0.00000000
Neuron 4 1 0.00000000 1 0.00000000 0.00000000 0.00000000 0.00000000
Neuron 5 1 0.00000000 1 0.00000000 0.00000000 0.00000000 0.00000000
Neuron 6 1 0.00000000 1 0.00000000 0.00000000 0.00000000 0.00000000
Neuron 7 2 0.00000000 1 0.00000000 0.00000000 0.00000000 0.00000000
Neuron 8 4 1.00000000 0 1.00000000 0.00000000 0.00000000 0.00000000
Neuron 9 4 1.00000000 4 1.00000000 0.00000000 0.00000000 0.00000000
Neuron 10 3 0.50000000 6 1.00000000 0.00000000 0.00000000 0.00000000
Neuron 11 3 0.50000000 6 1.00000000 0.00000000 0.00000000 0.00000000
Neuron 12 3 0.25000000 9 1.00000000 0.00000000 0.00000000 0.00000000
Neuron 17 3 0.75000000 9 1.00000000 0.00000000 0.00000000 0.00000000
Link 5 10 2 0 -1.48326933
Link 7 10 3 0 1.00033521
Link 1 11 4 0 -0.52271874
Link 4 11 5 0 1.78364516
Link 7 9 6 0 -0.66707308
Link 10 8 7 0 2.13112849
Link 11 9 8 0 0.86682420
Link 2 12 10 0 1.97101087
Link 12 10 11 0 -1.26205350
Link 4 9 31 0 0.76322884
Link 10 17 39 0 1.15430593
Link 17 9 40 0 0.14625083
Link 1 10 49 0 1.08262852
GenomeEnd

