GenomeStart 19990
Neuron 1 1 0.00000000 1 0.00000000 0.00000000 0.00000000 0.00000000
Neuron 2 1 0.00000000 1 0.00000000 0.00000000 0.00000000 0.00000000
Neuron 3 1 0.00000000 1 0.00000000 0.00000000 0.00000000 0.00000000
Neuron 4 1 0.00000000 1 0.00000000 0.00000000 0.00000000 0.00000000
Neuron 5 1 0.00000000 1 0.00000000 0.00000000 0.00000000 0.00000000
Neuron 6 1 0.00000000 1 0.00000000 0.00000000 0.00000000 0.00000000
Neuron 7 2 0.00000000 1 0.00000000 0.00000000 0.00000000 0.00000000
Neuron 8 4 1.00000000 0 1.00000000 0.00000000 0.00000000 0.00000000
Neuron 9 4 1.00000000 4 1.00000000 0.00000000 0.00000000 0.00000000
Neuron 10 3 0.50000000 6 1.00000000 0.00000000 0.00000000 0.00000000
Neuron 11 3 0.50000000 6 1.00000000 0.00000000 0.00000000 0.00000000
Link 2 10 1 0 -2.23653136
Link 5 10 2 0 -1.80403907
Link 7 10 3 0 -0.41947210
Link 1 11 4 0 -1.37310939
Link 4 11 5 0 1.33793878
Link 7 9 6 0 -0.55844893
Link 10 8 7 0 2.04672632
Link 11 9 8 0 1.75371894
Link 6 8 18 0 -0.41222522
Link 10 9 25 0 1.69224218
Link 5 9 29 0 -1.46970943
Link 3 9 35 0 0.72148067
Link 11 10 42 0 -0.64167895
Link 6 9 48 0 -0.58236584
GenomeEnd

