GenomeStart 69971
Neuron 1 1 0.00000000 1 0.00000000 0.00000000 0.00000000 0.00000000
Neuron 2 1 0.00000000 1 0.00000000 0.00000000 0.00000000 0.00000000
Neuron 3 1 0.00000000 1 0.00000000 0.00000000 0.00000000 0.00000000
Neuron 4 1 0.00000000 1 0.00000000 0.00000000 0.00000000 0.00000000
Neuron 5 1 0.00000000 1 0.00000000 0.00000000 0.00000000 0.00000000
Neuron 6 1 0.00000000 1 0.00000000 0.00000000 0.00000000 0.00000000
Neuron 7 2 0.00000000 1 0.00000000 0.00000000 0.00000000 0.00000000
Neuron 8 4 1.00000000 0 1.00000000 0.00000000 0.00000000 0.00000000
Neuron 9 4 1.00000000 4 1.00000000 0.00000000 0.00000000 0.00000000
Neuron 10 3 0.50000000 6 1.00000000 0.00000000 0.00000000 0.00000000
Neuron 11 3 0.50000000 6 1.00000000 0.00000000 0.00000000 0.00000000
Neuron 12 3 0.25000000 8 1.00000000 0.00000000 0.00000000 0.00000000
Neuron 14 3 0.25000000 0 1.00000000 0.00000000 0.00000000 0.00000000
Neuron 17 3 0.75000000 9 1.00000000 0.00000000 0.00000000 0.00000000
Neuron 21 3 0.25000000 9 1.00000000 0.00000000 0.00000000 0.00000000
Neuron 23 3 0.50000000 6 1.00000000 0.00000000 0.00000000 0.00000000
Neuron 30 3 0.12500000 8 1.00000000 0.00000000 0.00000000 0.00000000
Neuron 41 3 0.50000000 6 1.00000000 0.00000000 0.00000000 0.00000000
Neuron 42 3 0.37500000 6 1.00000000 0.00000000 0.00000000 0.00000000
Neuron 44 3 0.25000000 9 1.00000000 0.00000000 0.00000000 0.00000000
Neuron 63 3 0.18750000 6 1.00000000 0.00000000 0.00000000 0.00000000
Neuron 77 3 0.25000000 8 1.00000000 0.00000000 0.00000000 0.00000000
Link 2 10 1 0 -1.67987112
Link 7 10 3 0 0.54204523
Link 1 11 4 0 1.10359659
Link 4 11 5 0 1.41514508
Link 7 9 6 0 -2.52336763
Link 10 8 7 0 1.52035188
Link 11 9 8 0 1.93960454
Link 2 12 10 0 1.23397894
Link 12 10 11 0 0.74425767
Link 5 14 16 0 -0.25589734
Link 14 10 17 0 0.68688564
Link 6 10 22 0 0.02798278
Link 11 8 30 0 -1.71310103
Link 10 17 39 0 0.69218583
Link 17 9 40 0 2.58759929
Link 2 8 54 0 -0.67282031
Link 1 21 69 0 -0.35781198
Link 21 11 70 0 -3.21525901
Link 23 9 85 0 1.26126421
Link 12 9 115 0 0.06341539
Link 1 17 119 0 0.14763302
Link 5 30 128 0 0.60804428
Link 30 14 129 0 1.96436196
Link 2 14 141 0 0.01262074
Link 21 41 185 0 1.49525516
Link 41 17 186 0 0.83330455
Link 21 42 188 0 0.22065909
Link 42 41 189 0 2.25223682
Link 1 44 196 0 2.24359183
Link 44 11 197 0 0.97968684
Link 5 21 223 0 -0.94983795
Link 5 41 235 0 -0.27179737
Link 30 63 322 0 1.16418925
Link 63 12 323 0 -0.24499702
Link 1 23 328 0 -0.80720696
Link 63 10 372 0 0.17325920
Link 4 77 418 0 1.00000000
Link 77 23 419 0 2.83373311
Link 4 63 425 0 -0.04969651
GenomeEnd

