GenomeStart 30003
Neuron 1 1 0.00000000 1 0.00000000 0.00000000 0.00000000 0.00000000
Neuron 2 1 0.00000000 1 0.00000000 0.00000000 0.00000000 0.00000000
Neuron 3 1 0.00000000 1 0.00000000 0.00000000 0.00000000 0.00000000
Neuron 4 1 0.00000000 1 0.00000000 0.00000000 0.00000000 0.00000000
Neuron 5 1 0.00000000 1 0.00000000 0.00000000 0.00000000 0.00000000
Neuron 6 1 0.00000000 1 0.00000000 0.00000000 0.00000000 0.00000000
Neuron 7 2 0.00000000 1 0.00000000 0.00000000 0.00000000 0.00000000
Neuron 8 4 1.00000000 0 1.00000000 0.00000000 0.00000000 0.00000000
Neuron 9 4 1.00000000 4 1.00000000 0.00000000 0.00000000 0.00000000
Neuron 10 3 0.50000000 6 1.00000000 0.00000000 0.00000000 0.00000000
Neuron 11 3 0.50000000 6 1.00000000 0.00000000 0.00000000 0.00000000
Neuron 14 3 0.25000000 0 1.00000000 0.00000000 0.00000000 0.00000000
Neuron 17 3 0.75000000 9 1.00000000 0.00000000 0.00000000 0.00000000
Neuron 21 3 0.25000000 9 1.00000000 0.00000000 0.00000000 0.00000000
Neuron 41 3 0.50000000 6 1.00000000 0.00000000 0.00000000 0.00000000
Neuron 42 3 0.37500000 6 1.00000000 0.00000000 0.00000000 0.00000000
Neuron 44 3 0.25000000 9 1.00000000 0.00000000 0.00000000 0.00000000
Link 2 10 1 0 -0.99033428
Link 7 10 3 0 -0.03061545
Link 4 11 5 0 1.90638420
Link 7 9 6 0 -1.39460933
Link 10 8 7 0 3.15096768
Link 11 9 8 0 0.76821393
Link 5 14 16 0 1.21956427
Link 14 10 17 0 -1.01235226
Link 11 8 30 0 -0.98504675
Link 4 9 31 0 1.14590237
Link 10 17 39 0 0.37986171
Link 17 9 40 0 2.16302545
Link 2 8 54 0 -0.25574069
Link 1 21 69 0 -0.01641409
Link 21 11 70 0 -2.18934317
Link 1 17 119 0 -0.35501009
Link 41 17 186 0 -0.08104388
Link 21 42 188 0 1.13784816
Link 42 41 189 0 1.78128582
Link 1 44 196 0 1.16889771
Link 44 11 197 0 -0.91945656
Link 4 42 241 0 -0.06146641
GenomeEnd

