GenomeStart 10047
Neuron 1 1 0.00000000 1 0.00000000 0.00000000 0.00000000 0.00000000
Neuron 2 1 0.00000000 1 0.00000000 0.00000000 0.00000000 0.00000000
Neuron 3 1 0.00000000 1 0.00000000 0.00000000 0.00000000 0.00000000
Neuron 4 1 0.00000000 1 0.00000000 0.00000000 0.00000000 0.00000000
Neuron 5 1 0.00000000 1 0.00000000 0.00000000 0.00000000 0.00000000
Neuron 6 1 0.00000000 1 0.00000000 0.00000000 0.00000000 0.00000000
Neuron 7 2 0.00000000 1 0.00000000 0.00000000 0.00000000 0.00000000
Neuron 8 4 1.00000000 0 1.00000000 0.00000000 0.00000000 0.00000000
Neuron 9 4 1.00000000 4 1.00000000 0.00000000 0.00000000 0.00000000
Neuron 10 3 0.50000000 6 1.00000000 0.00000000 0.00000000 0.00000000
Neuron 11 3 0.50000000 6 1.00000000 0.00000000 0.00000000 0.00000000
Neuron 13 3 0.25000000 13 1.00000000 0.00000000 0.00000000 0.00000000
Neuron 15 3 0.25000000 0 1.00000000 0.00000000 0.00000000 0.00000000
Neuron 19 3 0.25000000 8 1.00000000 0.00000000 0.00000000 0.00000000
Link 7 10 3 0 -0.37085917
Link 1 11 4 0 1.52814930
Link 4 11 5 0 -1.37963914
Link 7 9 6 0 -0.34327995
Link 10 8 7 0 -0.93835442
Link 11 9 8 0 0.55765753
Link 2 13 16 0 0.14852544
Link 13 10 17 0 -1.42030698
Link 5 15 27 0 0.51299798
Link 15 11 28 0 1.68952768
Link 11 8 56 0 -1.30135790
Link 5 19 60 0 1.02350125
Link 19 10 61 0 -0.46484277
Link 13 19 113 0 -0.31399473
GenomeEnd

